{"architecture": [{"type": "Layer", "inpf": 4, "outpf": 20, "AF": "ReLU"}, {"type": "Dropout", "p": 0.4}, {"type": "Layer", "inpf": 20, "outpf": 10, "AF": "ReLU"}, {"type": "Dropout", "p": 0.4}, {"type": "Layer", "inpf": 10, "outpf": 10, "AF": "ReLU"}, {"type": "Dropout", "p": 0.4}, {"type": "Layer", "inpf": 10, "outpf": 3, "AF": "SoftMax"}], "weights": [[[0.1150767132639885, -0.12708553671836853, 0.4296794831752777, 0.33661964535713196], [0.08334390819072723, -0.10041337460279465, 0.011826465837657452, -0.14895445108413696], [-0.015172416344285011, -0.13772796094417572, 0.1395392119884491, 0.11572424322366714], [0.03509920835494995, 0.007717864587903023, -0.1610252559185028, -0.013565468601882458], [-0.09632327407598495, -0.1782149076461792, 0.3443598449230194, 0.5242851972579956], [-0.005400192458182573, 0.0008902758709155023, -0.03780313581228256, -0.1770978420972824], [0.054889362305402756, 0.02074131928384304, -0.453499436378479, -0.5070980787277222], [-0.07858160883188248, 0.2701893150806427, -0.46298232674598694, -0.3171948492527008], [-0.047228649258613586, -0.09904441982507706, 0.590991735458374, 0.5327672362327576], [0.15214307606220245, -0.03858989477157593, -0.018022922798991203, 0.09894943982362747], [0.050390519201755524, 0.15819363296031952, 0.03095364198088646, 0.05728182941675186], [-0.005758821964263916, -0.09001937508583069, -0.36031609773635864, -0.3139003813266754], [0.08324810862541199, -0.07777288556098938, -0.31392645835876465, -0.48034432530403137], [0.08849117904901505, 0.004733659792691469, 0.013477313332259655, -0.013669239357113838], [-0.044752735644578934, -0.04569818079471588, 0.27992844581604004, 0.14474713802337646], [-0.02995752915740013, -0.08188918232917786, 0.28217825293540955, 0.1806478351354599], [0.08913984894752502, 0.1358848661184311, -0.2530003488063812, -0.1296054869890213], [0.10178229957818985, -0.04796864464879036, 0.24781064689159393, 0.2721303701400757], [0.015923285856842995, -0.1761755645275116, 0.3602122366428375, 0.35730820894241333], [-0.016514869406819344, 0.12704649567604065, 0.00761187681928277, -0.07476924359798431]], null, [[0.04957057535648346, 0.025674816220998764, -0.15000611543655396, -0.006139378063380718, -0.06877917051315308, 0.05256024748086929, 0.18317750096321106, 0.09684884548187256, -0.24096797406673431, 0.061965592205524445, 0.008153322152793407, 0.09956306964159012, 0.17746226489543915, -0.0464017316699028, -0.07004866003990173, -0.08717559278011322, 0.05192655697464943, 0.001495528151281178, -0.14922203123569489, -0.007996945641934872], [-0.13972462713718414, 0.16840440034866333, -0.01793699711561203, 0.05216198042035103, -0.2601807713508606, 0.12492896616458893, 0.3109883666038513, 0.33362066745758057, -0.28221583366394043, 0.07625553011894226, -0.07491205632686615, 0.25171974301338196, 0.21743418276309967, 0.01599917933344841, -0.057898204773664474, -0.01156680379062891, 0.14013777673244476, -0.015229638665914536, -0.04198642447590828, 0.0256502665579319], [-0.15768323838710785, 0.1580573171377182, 0.0016443133354187012, 0.17694362998008728, -0.23685769736766815, 0.2150278091430664, 0.3273687958717346, 0.29077818989753723, -0.30469590425491333, 0.034221768379211426, 0.07390434294939041, 0.297128289937973, 0.3183901309967041, 0.017320573329925537, -0.0816173180937767, -0.11899739503860474, 0.21939992904663086, -0.1627354770898819, -0.22229202091693878, 0.21530400216579437], [0.00644390843808651, 0.06767401844263077, -0.027332860976457596, 0.15413454174995422, -0.08697865903377533, 0.2050297111272812, 0.15232940018177032, 0.014686502516269684, -0.001356678199954331, 0.09873434901237488, 0.12497219443321228, 0.08711323142051697, 0.10978434234857559, 0.10185112059116364, -0.057127807289361954, -0.00015542705659754574, 0.08121703565120697, -0.021910974755883217, 0.029899490997195244, 0.05133521184325218], [0.18410472571849823, -0.03673494607210159, 0.017639659345149994, -0.0720871090888977, 0.24830099940299988, 0.031896013766527176, -0.24913837015628815, -0.07402687519788742, 0.2885368764400482, 0.11651955544948578, 0.09218205511569977, -0.17382080852985382, -0.31241440773010254, -0.04898776859045029, 0.06732713431119919, 0.18947407603263855, -0.17003677785396576, 0.26982417702674866, 0.19149494171142578, -0.07298671454191208], [-0.16445046663284302, 0.002777016256004572, -0.02004154771566391, 0.13799947500228882, -0.15191982686519623, 0.15171247720718384, 0.36231133341789246, 0.17494027316570282, -0.29346033930778503, 0.07473477721214294, 0.04481334611773491, 0.21349339187145233, 0.26044464111328125, 0.10638724267482758, -0.10219695419073105, -0.13213267922401428, 0.1581277698278427, -0.037158697843551636, -0.1486629992723465, 0.052535295486450195], [0.3771023154258728, 0.010599134489893913, 0.1749269962310791, 0.04577638953924179, 0.2822301387786865, 0.051264822483062744, -0.2482835054397583, -0.28363779187202454, 0.4379936754703522, 0.028539976105093956, 0.011036712676286697, -0.08262858539819717, -0.13285529613494873, 0.005525310058146715, 0.1999489814043045, 0.1754969209432602, -0.020817477256059647, 0.16156329214572906, 0.3916877806186676, 0.01856347732245922], [0.19931937754154205, 0.10740216076374054, 0.11309695988893509, 0.1147352010011673, 0.11838348954916, 0.08431234210729599, 0.03761541470885277, -0.1093020811676979, 0.15650641918182373, 0.07797699421644211, -0.011252572759985924, -0.04747696965932846, 0.06060802936553955, 0.17623721063137054, 0.04899555444717407, 0.06696458160877228, -0.03295769542455673, 0.11895269900560379, 0.10281574726104736, 0.05720531940460205], [-0.10786157846450806, 0.0763101801276207, -0.04880410060286522, -0.032298743724823, -0.23809905350208282, 0.10082279145717621, 0.18253380060195923, 0.21345439553260803, -0.08727815002202988, -0.12414318323135376, -0.03799792751669884, 0.07154323160648346, 0.16711674630641937, 0.05356169864535332, 0.03861037641763687, 0.02540002390742302, 0.061667054891586304, 0.0034311464987695217, -0.0047495258040726185, 0.012714170850813389], [0.13107869029045105, 0.03406427055597305, -0.005425541196018457, -0.010754335671663284, 0.1955142468214035, 0.04125305265188217, -0.15703916549682617, -0.27028360962867737, 0.2654936909675598, 0.05025775730609894, -0.13071167469024658, -0.0755610540509224, -0.08466283977031708, -0.05926204472780228, 0.04443627595901489, 0.0034061556216329336, 0.002826252020895481, 0.18661825358867645, 0.0849965438246727, 0.02801741287112236]], null, [[0.07293163985013962, 0.19304484128952026, 0.2370963990688324, 0.19185605645179749, -0.02913135476410389, 0.1638614982366562, -0.2568891942501068, 0.007842078804969788, 0.12246280908584595, -0.11798116564750671], [0.42189961671829224, 0.6211241483688354, 0.7403721213340759, 0.4261958599090576, -0.30137836933135986, 0.583517849445343, -0.19396066665649414, 0.12062134593725204, 0.38772502541542053, -0.23127134144306183], [-0.05208928510546684, -0.0974382534623146, -0.1498989462852478, 0.07715902477502823, 0.16400738060474396, -0.1153712347149849, 0.3821685016155243, 0.23702971637248993, -0.0361596904695034, 0.16480377316474915], [-0.06174354627728462, -0.2183932214975357, -0.3257308304309845, 0.15400773286819458, 0.5266371369361877, -0.29584720730781555, 0.5459113121032715, 0.20034730434417725, 0.05781475454568863, 0.23028376698493958], [0.003127111354842782, 0.15884584188461304, 0.12476594746112823, -0.023332109674811363, -0.2892512381076813, 0.35576102137565613, -0.3136330842971802, -0.22821061313152313, 0.1478557139635086, -0.15686365962028503], [0.11067907512187958, 0.19090938568115234, 0.4241538345813751, 0.17895157635211945, -0.23971472680568695, 0.25075778365135193, -0.19340457022190094, -0.019137419760227203, 0.31647807359695435, -0.029169602319598198], [-0.13914065062999725, -0.13557390868663788, -0.1466607302427292, 0.041310008615255356, 0.1029479056596756, -0.0275585874915123, 0.31525564193725586, 0.23631107807159424, 0.06312888860702515, 0.2125314474105835], [-0.09495965391397476, -0.13245323300361633, -0.13689549267292023, 0.033382024616003036, -0.018798714503645897, 0.107113316655159, 0.21802224218845367, 0.00692654587328434, -0.0426752083003521, -0.11715951561927795], [-0.23520627617835999, -0.3035106658935547, -0.2811387777328491, -0.05917329713702202, 0.25911176204681396, -0.11342599242925644, 0.2845418453216553, 0.004696599207818508, -0.15894387662410736, 0.12208706885576248], [-0.038595594465732574, 0.06410589814186096, -0.16917012631893158, 0.14259077608585358, -0.020321445539593697, -0.03500896319746971, 0.23689600825309753, -0.03248708322644234, -0.022274592891335487, 0.19452916085720062]], null, [[0.3522379994392395, 0.534655749797821, -0.32549867033958435, -0.679024875164032, 0.5572192668914795, 0.5068685412406921, -0.5765994787216187, -0.14181096851825714, -0.25417494773864746, -0.20103856921195984], [0.19772866368293762, 0.466769814491272, 0.34795480966567993, -0.034534599632024765, -0.25281691551208496, 0.1496795415878296, 0.18857283890247345, 0.21312971413135529, -0.17618541419506073, 0.32505056262016296], [-0.35840776562690735, -1.299359679222107, 0.5038439035415649, 0.6459663510322571, -0.134943425655365, -0.5663292407989502, 0.1068197712302208, 0.08917039632797241, 0.5386221408843994, 0.15881183743476868]]], "bias": [[[1.0100162029266357, 1.0170320272445679, 0.9920552372932434, 1.0207748413085938, 0.9793977737426758, 1.0389037132263184, 1.0483516454696655, 1.0283920764923096, 1.041678786277771, 1.0031278133392334, 1.0012882947921753, 1.0311193466186523, 1.038619041442871, 1.0063873529434204, 0.9899708032608032, 0.9885321259498596, 1.0221710205078125, 0.9904907941818237, 0.9966531991958618, 1.0161710977554321]], null, [[1.0423622131347656, 1.048383355140686, 1.0846554040908813, 1.0588281154632568, 0.9934203624725342, 1.0527257919311523, 1.0398579835891724, 1.0177797079086304, 1.056186318397522, 1.001928687095642]], null, [[1.0236629247665405, 1.1441258192062378, 1.0514295101165771, 1.0260136127471924, 0.996928334236145, 1.0754700899124146, 1.0316061973571777, 1.0188089609146118, 0.9776592254638672, 1.0214124917984009]], null, [[0.9926236271858215, 1.1118243932724, 0.905820369720459]]], "cost": "CrossEntropy"}